digraph Tree {
node [shape=box, style="filled", color="black"] ;
0 [label="X[0] <= 3.133\nmse = 0.547\nsamples = 80\nvalue = 0.122", fillcolor="#e58139a0"] ;
1 [label="X[0] <= 0.514\nmse = 0.231\nsamples = 51\nvalue = 0.571", fillcolor="#e58139e8"] ;
0 -> 1 [labeldistance=2.5, labelangle=45, headlabel="True"] ;
2 [label="mse = 0.192\nsamples = 11\nvalue = 0.052", fillcolor="#e5813994"] ;
1 -> 2 ;
3 [label="mse = 0.148\nsamples = 40\nvalue = 0.714", fillcolor="#e58139ff"] ;
1 -> 3 ;
4 [label="X[0] <= 3.85\nmse = 0.124\nsamples = 29\nvalue = -0.667", fillcolor="#e5813920"] ;
0 -> 4 [labeldistance=2.5, labelangle=-45, headlabel="False"] ;
5 [label="mse = 0.124\nsamples = 14\nvalue = -0.452", fillcolor="#e5813943"] ;
4 -> 5 ;
6 [label="mse = 0.041\nsamples = 15\nvalue = -0.869", fillcolor="#e5813900"] ;
4 -> 6 ;
}